#define R_NEURONS1  20
#define R_NEURONS2  24
#define R_NEURONS3  4

#define R_LAYER1    504
#define R_LAYER2    100

#define W_NEURONS1  20
#define W_NEURONS2  30
#define W_NEURONS3  8

#define W_LAYER1   630
#define W_LAYER2   248


fix16_t r_weights[2][R_LAYER1] = {{35444, 215645, -81034, -244717, 69455, 4126, -155521, -70560, -117254, 41446, 149899, -59625, 81329, -466794, 211254, -111971, 200430, -122587, -47655, 500576, -279142, -107281, -1549, 89126, -136838, -362194, 35385, -69924, 52409, -41654, 85894, 27877, 54711, 115994, 95910, 1925, 39362, 26553, 340386, 239163, 93674, 141361, 2066, -269369, -366483, 84297, -112085, 134223, -96295, 13436, -151533, 38268, -24321, 122445, -125907, 122232, 51805, 66584, -37939, -145146, 30468, -168870, 41133, -244828, 184188, -243915, -138213, -247, -25967, 133646, -36828, -60246, -70513, -75762, -306164, 158428, -60418, -218771, 61705, -132890, -26580, -34181, 198141, -101133, 245655, -426288, 44571, 269875, 27522, 134928, -8798, -95028, -45030, 216448, -249620, -65018, 143868, 114653, 103391, -227671, 252660, 43621, -108666, 192522, 3224, 163806, 196511, -400071, 74691, -100496, -76586, -73103, 216396, -157289, -204685, 17041, 88938, 42906, 121222, -27779, 27691, 277631, 4836, 288056, -157395, 468033, -36663, 161437, 59186, -91372, -193407, -5513, -4680, 300615, -122531, -207171, -113620, -296129, 17367, 82269, 106160, -38157, -114597, -130838, -190728, -441550, 156753, 45751, -109417, -168856, -22541, -114862, 99882, -139949, 97371, -19891, -86279, 68612, -115957, 25766, -304206, -42843, 7591, -11589, 120105, -70233, -226255, 147499, 80204, -94711, -135171, 1175, -259858, -410, -71417, 118562, -272027, 74458, 45970, 138501, -69865, 412416, 9423, -74490, 42695, 185241, 19466, -231966, 142802, -75151, 111804, -33074, -109535, 178895, 243886, -106411, -33786, 151304, 66096, 31364, -71243, 264741, -33953, -191786, -154094, 18287, 66470, 143829, 76088, 13522, -100247, -64172, -22430, 91151, -456893, 167747, 34156, -24795, -71565, -166004, -31052, -262314, -258633, -260563, 137386, 49444, -20733, -190298, 31725, -48407, 380579, 67256, -128777, 231788, -261170, -299874, -423057, -54217, 106982, -35773, -61847, -38188, 64612, -145069, -97354, -8769, 2225, 328680, -220045, -112176, 69955, 63288, -18406, -15561, -132698, 22935, -2372, 376324, 343105, -9647, 475662, -84010, 168495, 55071, 121012, -17219, 158821, -26747, 19448, -156886, 96218, 178744, 22768, 44935, 8854, 241743, 110936, -69447, -31136, -34832, -484923, 44930, -421452, -50623, -70734, -299027, -37576, -43949, -20456, -215707, -141885, -309987, 9701, -457438, -209, -47983, -487680, -80095, 112415, -38, 109118, -109577, 12941, -170596, -264274, -145989, 86222, -109203, -5389, 233987, 57139, 138272, -278503, -160695, -155773, 158720, -141583, 169936, 245549, 152731, 143235, -23535, -207565, 319916, -75806, -195560, 171782, 196961, 173930, 120591, -17987, -29971, 42281, 175537, 143039, -257846, -212550, 287580, -7989, 86212, 223059, 487630, -171087, -380462, 23446, 233980, -357297, 19695, -107978, -315382, 158633, -431961, 24855, -250129, 44881, 6895, 55703, -53383, -86449, -75158, -151382, 210994, 21635, -20000, -32488, -10347, -18055, -70981, -118290, 4254, 161066, 149475, -100445, 46081, -445456, -86505, 184230, 166968, -38334, 287065, 112712, -182652, 98775, -267522, 91433, 3648, -192250, -73913, -27482, 216981, 103293, -134723, -83865, 119973, 135638, -333644, 231751, 89805, 137973, 130089, 280942, 4956, 168589, 273674, 99676, 53213, -54229, -178311, 63878, 70488, -217646, -93994, -48417, -47281, -21424, -44918, -264121, -75567, -198705, 176640, -418547, 212724, 137573, -111243, 184110, 272792, -68353, 108042, 6169, -304805, -193641, -216058, -108565, -11915, -333008, 123689, -39558, -292334, -56609, 208525, -29032, 11023, -60890, 85622, 106725, -62144, 78852, 137447, -101165, -263409, -102217, 253565, -52331, 82766, 190777, -859, -291879, 13714, -14342, -189216, -190687, 1189, 112094, 207898, 123296, 48729, 27984, 275628, -202554, 161241, 224005, -153094, 93756, 173281, 117589, -167529, -50966, -90125, 198291, -314316, -1821, -132338, -178688, 120762, 46814, 137547, 54405, 42603, 300691, -111824, 239957, -19377, -191786, -59766, 10784, -172520, -158344, -292036, 189979, 152420, -29903, 152975, 85684, -63226},
{97547, -327059, -197956, -359644, -432680, 284024, 13463, -150814, 123017, 238531, -51776, -47650, -20208, 14461, 97797, -152679, 78383, 139664, -116380, -44005, -13005, 191145, 84553, -232666, 81837, 70499, -10606, 197588, 60730, -85972, -108611, -465965, 82559, 36139, -6005, -16388, 170728, -6223, -71088, 112345, -17698, -16504, 43396, 31574, -102773, 15150, 55910, 37448, -17533, -91415, 40181, -426063, -371481, -62520, 105885, -40629, -88105, -35521, 239882, 30824, 112520, -69406, 2822, -126246, -246352, -65064, -114430, -5819, 234809, 440316, -70951, -186419, 115455, 127904, 66569, -301786, 14871, -66856, -55791, -132514, 59758, -140645, -168503, -79927, 16828, -97873, 291820, 126973, -44324, 80666, -128162, -72617, -88079, -103550, -69153, 186680, 101809, 168119, -162714, -71731}};


fix16_t w1_weights[2][W_LAYER1] = {{187325, 76689, -44545, -158009, 317083, 153571, 103041, 28204, 154834, -43657, 1796, -116907, -308036, 9648, -121365, -109716, 53487, 101567, -188950, -214337, 37225, -299188, -28439, 167446, -118168, -53038, 161114, 30854, 215923, 84771, 238193, -218243, -230473, -51205, -3735, 140886, 43376, 140417, 77220, 328749, 80194, 70713, -60837, -178704, 82726, -1879, -15127, -41914, 117162, -13934, -18443, -72701, -54906, 156396, 177085, -228740, -330152, 136970, -61368, -47305, -17072, 8485, 105204, 177553, 77004, 240005, -61527, 274081, 140613, -112561, 130667, 230455, -348753, -207252, -238170, -128265, -176985, 129986, 46944, 140655, -79885, -58484, 134170, 178932, -4382, 145904, 118962, -226677, 186371, 89801, -16419, 73925, -114377, 90168, 253591, -140102, 60763, -32923, 447107, 19021, 212086, -9442, -164121, 32246, 218698, -74960, 27626, -93737, -54621, 348922, -81015, -365489, 161968, -194705, 106136, 144280, -194750, 223143, 313208, -12593, -50136, -45181, -236319, -31920, -36962, 109737, -294708, 76893, -216063, -408127, -251328, 222314, -71522, 176970, 116493, -12422, -24948, 168530, -170472, 36239, 105886, -62803, 222786, -239888, -106111, -229907, -354547, 114953, -87109, -205934, -21920, -49520, -15967, 313442, -222360, 91827, -120805, 170040, -140872, -179043, -231711, -268836, 174752, 33884, -54724, -20066, -176595, -114297, -35657, 46674, 111638, -112044, -174955, -146571, -15069, 253762, 22217, 35028, 9610, -123524, 384495, 94799, 242905, 249408, 26136, -231158, -109341, 17123, 33222, -114942, -215461, 51919, 285089, 182253, -308076, 144206, -51987, -458896, 336619, 164201, 106318, -89397, -25865, -203251, -304079, -107072, 112040, -97608, -31630, -118960, -196446, 43669, -282742, 313355, -48930, 239578, -6006, -52875, -92504, 96317, 54489, -119699, 112699, -187585, -84962, 51014, 110857, 102764, -5860, -59593, -166767, -215412, -73977, 164987, 206938, -53994, -215769, -95352, 10160, 31207, 106548, -107150, 46250, -366901, -160297, 89856, -15774, 218400, 68678, -171162, -102284, 61026, -68875, -187824, -8015, 68582, 143491, -74142, 191833, 13752, -243930, 54209, -56520, -18153, 123020, 306805, 12852, 207639, 140672, -295463, -74030, 8813, -25097, -13535, 8204, -114277, 34516, 281571, 114648, 18933, -133169, 205060, -176988, 92494, -91456, -84270, 246955, 210788, -68313, -15738, 53119, 120026, 288144, -241489, 80079, -58511, 114917, 63202, -213907, 247570, 215667, 17229, -10667, -252601, -99931, -19984, 95884, 178936, 14192, -35094, 121574, -79595, -8104, 149511, -32680, 277830, -81550, 223717, 170422, -11071, -96085, 66182, 12428, -572648, -240669, 22683, -246628, -82173, 138477, 66203, 112661, 142325, 64973, 34084, -110958, -319202, -19533, 20556, -115853, -149464, -5028, 45533, -88921, -253839, -132168, 55519, 27686, -134486, -20126, 57662, 145200, 118822, 71608, -86188, -164038, -108851, -150238, -83961, 20243, -168318, -78955, -142916, 207742, 71364, -173750, 60679, 132137, -21868, 86209, -80621, -120006, -145613, 14133, -200385, -7315, 168995, -285437, -643103, 198160, -117084, -16268, 159358, 29797, -103500, -28162, -331910, 90608, -22052, 61537, -99669, 2914, -160915, 29648, 118377, 30394, -318294, -154138, -156401, -176262, 110889, 236516, -36981, 22568, -191904, 117743, -18917, 198699, 104887, -87504, -119656, -168030, 80115, 225266, -219196, -113670, -13245, 21239, -39866, -134352, 14249, 72529, 401970, 99977, -155048, -91038, 70226, -80477, 75992, 71910, 16528, -46205, -255676, 85023, -157013, 39978, 203678, 270723, -111422, -100600, 232027, -88462, 168249, 18986, 164950, -188286, 127069, 60066, 252322, 67636, 99744, 87035, -64656, -17277, -32351, 184415, -53753, -168755, 136443, -104090, -165569, 133339, 128113, 194999, 37861, 73794, 85504, -89237, -216259, -38774, 193258, 114589, -177882, 353853, 6772, 7295, -42264, 238730, 142784, -54394, 139228, 47172, -127029, -89829, -135544, -96297, -194407, 15465, 9469, 186080, -149062, -218813, 116394, 112159, -73671, -41386, -65969, 9718, -225721, 124675, -142775, -136477, -147343, -69206, -127738, 56187, -219650, -328211, 135639, -23, 247970, 340361, 36984, 327034, 35914, 1301, 36130, -373516, 4373, -8672, 165591, -16324, -158546, -59164, 228837, -99464, 559, 169696, 73764, 23229, 142901, -196295, 106024, 197484, -134277, 29802, -47978, 109519, -53889, 100575, 3008, 52709, -231582, 230870, -230294, 4269, 30204, 181305, 262053, -29225, -138650, -107146, -231556, 118670, 24586, 213905, -236414, -253868, -60340, -22741, -8771, -229646, -64581, 49218, 102490, 159989, -29053, 47129, 126915, -41089, -269625, 70022, -145667, -184582, 306859, 347368, -213373, 19895, -354710, -263225, 37154, 181087, 52690, -71207, -43594, -69419, 101188, -48472, -143427, -54848, -299848, 44247, 104458, -188683, -121457, 241616, -16707, 179481, 451752, 79506, 38537, -34887, -93951, 123298, -106140, 30792, -233648, -141813, -53420, -3485, 273627, 1757, -18943, 72811, 396578, -164099, -1150, -27596, -378291, -255995, 86294, -105368, -143996, 170987, 158043, -212995, 104447, -125985, 264426, -439404, 81993},
{19514, 109094, 112507, 175389, -116433, 75681, -158480, -65611, 95268, 243710, 143550, 684, 148709, 175072, -146364, -42166, -75539, -121088, -90573, 102540, -187977, 39873, -44638, -191303, -626772, 83162, -56109, 25050, -242627, 4550, 301178, -242401, 115467, -106669, -183150, -95208, -174845, 193149, -51863, 179640, 291429, 125861, 114339, -203221, -86877, -110055, 75534, 266342, -211749, 7257, 156581, -43066, 15487, -15201, -152645, 308554, -136551, 277231, 306384, -8100, -222404, -238031, 165427, -200928, 188583, 16652, 13459, -30900, -209088, 212672, -21057, -252756, -91978, 25813, -249200, -40857, 302496, 143119, -32812, -310317, 113779, -86497, -29438, -140070, -192439, -62326, -246323, -228124, 193305, 140126, -19895, 71934, 221695, -209154, -95806, -131376, -106904, -244478, -128646, -48301, -171320, -91836, -48916, 115093, 152275, -156910, -34147, -154539, 126573, 66733, -134809, -7050, -102472, 46278, -47364, -18029, -46847, -129944, -114603, -111597, 174098, 191029, -77824, 96486, 75179, 185478, 1434, 17475, -92951, -48262, -133451, 119372, 29528, -32962, 86667, -154113, 25551, 58375, -52638, -20513, -125638, 82022, 43626, 1125, 41914, -119281, -217557, -58485, 282574, 225080, 321420, 60513, -56594, -89538, 125467, -173496, 190912, -100790, 228931, -5641, -23981, 1613, -338355, 5819, 241990, -1494, 105584, -80557, 130970, 35540, 35282, -184883, 276164, 110001, 284826, 77513, -130850, -11060, 66811, -121182, -257112, 213257, 321056, -85795, -95510, 211076, -13216, -62212, -128659, -47812, -324992, -41469, -12677, 21283, 32604, -342638, 221937, -78605, 111494, 18262, 153707, -296255, -205517, 1175, 89888, 7059, 147269, -79756, -174547, 340187, -130717, -35826, -12676, 40952, -26450, 679, 223196, 113245, -90725, 104223, 166287, 132318, -318923, 55419, 73171, 114883, 39505, -148697, 248070, -240827, -40156, 236584, 185287, -19991, -38116, 57959, 211496, -86562, 224686, -304622, -227107, 172237, 132544, -39092, -48105, -208523, 116989, 93816}};

fix16_t w2_weights[2][W_LAYER1] = {{179799, 195218, -52140, -142007, 348980, 169164, 120572, 1781, 188803, -96151, 47107, -124762, -344456, 19177, -233293, -114099, 64010, 102575, -97312, -246434, -51735, -302606, -81265, 175285, -134041, -62649, 83059, 3125, 198277, -57420, 158213, -209441, -247877, -63643, -98783, 192150, 108897, 163475, 3078, 372778, 87698, 63706, -79936, -279355, 90429, 35240, -14099, -54699, 95604, -17787, -23134, -119306, -45477, 90440, 156180, -206485, -365765, 108645, -63402, -47634, -147121, -15184, 115815, 136377, 153072, 261069, -74274, 244003, 155232, -86136, 139841, 293589, -375049, -179188, -176052, -173602, -235593, 111892, 36989, 71550, -55609, -59471, 125083, 266614, -28604, 167590, 181615, -215653, 167688, 88257, -13911, 146976, -133601, 64367, 271108, -147462, 59150, -74939, 481870, -102637, 222924, -52701, 11733, -80213, 218168, -47501, 85243, -77630, -70358, 368417, -22699, -370849, 179342, -195444, 101777, 125614, -189470, 262903, 332691, -73886, -95796, -15741, -218765, -50727, -99274, 168653, -333371, 94823, -221628, -361930, -249724, 206573, -36756, 117573, 151529, -25007, -33637, 170590, -188643, -42423, 20428, -84264, 244914, -232557, -108438, -207653, -447317, 294477, -65128, -218627, -33732, -62672, -24529, 349974, -361760, 81149, -125345, 186659, -159414, -219009, -203600, -271359, 190895, 34237, -5309, -74860, -176978, -133650, -14509, 98537, 87066, -117741, -211341, -206998, -59537, 236089, 82661, -13567, -6024, -296726, 349727, 89139, 232444, 297959, 16783, -183158, -116511, 9597, -3163, -123789, -164047, 39960, 227370, 191548, -273050, 172131, -60821, -449371, 345656, 165361, 118286, -128672, -43806, -240046, -301865, -81361, 87017, -66323, -13640, -82377, -189351, -38120, -273251, 337385, -4903, 177513, -2351, -56452, -98837, 80830, 48637, -86226, 125237, -153404, -1624, 6380, 176180, 156269, 31159, -73906, -74873, -225022, -101592, 140319, 211765, -33444, -220441, -80836, -12930, 10983, 133965, -34945, 32384, -475536, -72169, 75773, -36226, 117241, 27341, -172519, -92737, 72781, -61253, -172957, -50841, 35695, 117005, -86746, 233625, -13887, -276318, 83004, -72064, -12256, 126597, 267373, 11652, 170805, 138702, -355270, -115709, -57948, -40471, 66276, 71271, -122193, 31544, 292124, 19034, 26815, -175452, 142343, -173748, 69642, -97104, -56992, 230884, 219419, -72687, -44010, 78671, 116880, 280032, -274898, -6709, -101051, 107789, 99794, -257457, 243725, 157500, -11111, 16261, -143723, -113805, -78575, 152230, 116161, 11381, 130360, 102170, -70106, -83716, 206161, -22146, 359450, -109718, 235099, 202723, -52622, -118093, 37090, -26606, -530614, -242079, 31140, -259711, -90514, 144889, 92447, 120430, 163782, 52290, 26575, -121147, -301435, -13107, 10334, -129127, -130833, 52888, 63796, -91556, -272539, -111530, 7729, 31110, -182495, -20389, -27140, 122032, 153520, 85090, -562, -136729, -165583, -186034, -93990, -12329, -159498, -29984, -128944, 215435, 91497, -137898, -29679, 248001, -8130, 77925, -183614, -125490, -125162, 27602, -66435, 8553, 117980, -257829, -559718, 210414, -103978, -15556, 133798, -86, -111161, -103134, -300847, 151895, -9216, 91467, -248271, 17292, -154360, 48135, 153876, 23220, -303354, -226692, -194389, -181776, 50003, 223426, -70240, 18961, -155350, 93217, -9593, 104238, 56510, -174471, -97964, -177964, 111335, 8193, -193151, -40668, 7448, -76650, -66547, -163772, -3324, 32973, 401354, 92921, -90833, -85551, 46935, -147902, 67012, 65265, 14412, -19985, -263957, 87166, -156923, 63782, 129404, 394246, -123400, -31885, 203073, -122090, 180716, -15930, 233816, -183357, 22244, 62893, 274200, 107045, 162972, 69027, 26186, -43607, -45536, 189290, -48970, -158546, 87467, -18002, -117116, 154898, 155466, 200014, 31013, 60618, 77165, -71340, -215290, -11102, 83186, 124923, -157536, 322112, -11386, 34609, 29265, 218664, 119839, -66947, 351123, 46609, -215044, -28180, -142632, -106850, -193096, 48167, 19313, 206104, -150194, -192187, 124434, 117611, -58726, -77858, -82360, -16087, -228002, 111207, -218686, -171538, -145264, -138838, -87924, 53098, -291634, -313339, 50348, 76974, 281230, 348194, 5691, 278543, -84532, 9162, 45454, -342260, 18066, 63433, 172278, -42660, -162854, -140797, 218416, -134456, 9923, 224582, 84351, 81606, 162743, -231322, 82948, 225317, -174200, 10360, -100879, 100199, -65702, 68528, 36599, 64029, -230570, 243393, -214486, -103623, 34030, 197279, 246692, -43111, -124421, -243174, -217210, 144746, 16454, 238895, -374158, -291943, -92420, -22226, -1689, -228038, -75342, 54287, 89168, 177152, 9987, 5227, 159661, -48467, -279224, 68245, -162921, -117051, 304025, 324513, -253273, -14938, -334261, -352726, 74880, 240903, 62433, 15548, 79788, -76567, 94610, -25943, -154077, -11698, -371601, 69283, 92364, -163389, -128125, 219900, 18109, 162809, 417576, 34522, 64434, -52454, -88489, 166534, -121279, -45120, -253892, -143078, -242755, 17023, 251808, -71057, 14742, 62834, 431279, -220334, -68060, 55229, -346357, -219418, 87504, -104025, -88033, 182654, 133304, -111314, 125591, -139506, 257450, -439609, 36599},
{77571, 38732, 200395, 221243, -102605, 79912, -121233, -74218, 70490, 245862, 282207, -21174, 103581, 96555, -114836, -102208, -122573, -51224, -142281, 74436, -162811, 31542, -55289, -233064, -582556, 75315, -41150, -6117, -272857, 22405, 329456, -226455, 148252, -140701, -159412, -97062, -168267, 152276, -12134, 170264, 292218, 156855, 184679, -223450, -129330, -155425, 101911, 343978, -221726, 61305, 149120, -34594, -27633, -480, -163865, 365960, -108192, 273742, 364823, 25995, -214407, -257653, 153552, -322521, 169238, 55687, 2527, 49089, -213263, 248855, 1227, -320991, -119092, 146315, -256519, -23256, 254511, 105228, -10393, -312734, 105364, -14746, 18661, -132282, -172076, -51716, -55072, -213575, 122913, 166563, 583, 97200, 259072, -239038, -42323, -79260, 64809, -216388, -104811, -40551, -321183, -59679, -63608, 56463, 151390, -106942, -23797, -141262, 49269, 68644, -124506, 17364, -162403, 103016, -17034, 28418, -66850, -137950, -113329, -91003, 407649, 197186, -73273, 114185, 115401, 197126, -65607, 15297, -118126, -8618, 25133, 80632, -19538, -6169, 110320, -134075, 63480, 109905, -81649, 13802, -113920, 116045, -58639, -101281, 123249, -123017, -171885, -69840, 326361, 271733, 269870, 22204, -77356, -89616, 97676, -174964, 172687, -94016, 267105, -29763, -125451, 32407, -336038, 28784, 404092, -17068, 99897, -75042, 105331, 49915, 32557, -323531, 293868, 194454, 260128, 77219, -167410, -8053, 63754, -189517, -291804, 154567, 325953, -116965, -33136, 227486, -10149, -50120, -83925, -89749, -370621, -33646, 2541, -24710, 44092, -361065, 80030, -72032, 191877, 15210, 199229, -323614, -195280, 103910, 94927, -10798, 67446, -147628, -298885, 263356, -92148, -37433, 14381, 52363, -36487, -6689, 206849, 119200, -34249, 109276, 192519, 109378, -228604, 18420, -39720, 179284, 63154, -196892, 313705, -180171, -18999, 184906, 188686, -17602, -58252, 44354, 170151, -61774, 202901, -303244, -242907, 116458, 27881, 40972, -46710, -257356, 179069, 117524}};
