#ifndef ANNW_H
#define ANNW_H

#include "ann_fixed.h"

#define MAX_PRICE_NEURONS   10
#define MAX_DEMAND_NEURONS  10

#define PRICE_NEURONS1      10
#define PRICE_NEURONS2      5
#define PRICE_NEURONS3      1

#define DEMAND_NEURONS1     10
#define DEMAND_NEURONS2     10
#define DEMAND_NEURONS3     1

#define Q_NEURONS1          20
#define Q_NEURONS2          20
#define Q_NEURONS3          3

#define Q_LAYER1        (Q_NEURONS1 * Q_NEURONS2 + Q_NEURONS2)
#define Q_LAYER2        (Q_NEURONS2 * Q_NEURONS3 + Q_NEURONS3)

#define PRICE_LAYER1    60
#define PRICE_LAYER2    6

#define DEMAND_LAYER1   110
#define DEMAND_LAYER2   11

// float Q_weights[2][Q_LAYER2] = {{-0.783741, -0.614180, -1.256680, -0.560312, -0.512357, 0.059688, -0.035677, 0.440000, 0.050000, -0.023091, -0.609450, -0.894763, -0.694668, 0.050000, -0.480000, 0.444120, -0.499056, -0.459765, -0.991471, -0.503461, -0.657840, -1.878416, -0.893368, -1.979461, -0.145161, -1.021759, 0.144839, 0.837702, -0.150000, -0.170000, -0.267811, -1.616378, -1.657320, -0.892181, -0.320000, 0.190000, -0.067240, -0.743412, -1.096268, -0.789619, -0.465089, -0.473889, -2.279179, -0.225926, -1.212415, -1.475898, -0.495370, -1.995898, 0.087046, -0.220000, -0.240000, -1.731258, -0.453373, -0.887711, -1.372894, 0.280000, 0.410000, 0.041237, 0.317661, -1.229938, -2.249915, -0.434907, -2.064323, -0.584235, -0.867392, -0.100275, -0.431858, -0.624221, -0.241858, -0.623946, -0.060000, 0.410000, -0.124668, -1.104439, -0.729739, 0.068621, 0.350000, -0.160000, -0.402389, -0.415722, 0.034001, -0.612407, -0.438074, -0.862017, -1.117901, -1.005519, -0.456952, 0.034024, -0.306344, 0.314024, 0.560608, 0.060000, 0.480000, -0.996131, -0.413962, -1.355563, -0.925913, -0.260000, -0.040000, -0.072267, 0.000073, -0.468488, -1.376250, -0.169552, -0.558218, -0.482069, -0.913690, -0.185680, -0.411510, -0.805301, -0.501510, 0.320379, 0.230000, -0.150000, -0.629093, -1.112303, -0.767311, -0.764967, 0.100000, -0.300000, 0.240536, -0.646969, -0.010846, -0.489526, -0.303988, -0.880836, -0.671605, -0.604503, -0.415631, -0.775364, -1.008287, -0.815364, -0.702655, 0.050000, 0.010000, -0.483621, -0.870683, -0.965491, -0.032265, 0.340000, -0.320000, -0.209419, -0.160379, 0.181498, -0.762784, 0.282873, -1.024844, -1.607238, -0.785545, -0.939521, -0.155745, -0.928229, 0.534255, -0.368708, -0.190000, -0.290000, -0.105208, -1.648186, -1.732278, -0.612387, -0.340000, -0.270000, -0.496535, -0.340635, -0.826351, -1.147566, -0.203422, -0.332835, -1.725181, -0.769607, -0.762520, -1.148313, -0.704171, -0.738314, -0.411651, -0.430000, 0.270000, -0.937717, -0.979174, -0.574069, -0.589921, -0.100000, -0.210000, -0.284081, -0.243537, -0.240835, -1.505517, 0.179213, -1.078176, -1.238347, -0.650275, -0.022603, -0.682032, -0.534830, -0.342032, -0.462227, -0.350000, -0.190000, -0.189834, -0.941200, -0.936518, -0.395692, 0.450000, -0.380000, 0.300754, -0.048486, -0.557855, -1.073877, 0.338939, -1.129860, -1.551212, -1.964747, -2.312519, -1.321844, -1.172638, -1.336561, -1.802895, -0.842826, -1.272843, -1.245129}, {-0.303463, 0.068607, -0.030277, 0.386721, -0.284182, -0.018401, -0.060710, -0.032239, 0.269706, 0.550548, 0.310000, -0.120000, 0.350000, 0.260000, 0.000000, 0.120000, -0.380000, 0.190000, -0.340000, 0.500000, -0.476806, -0.129944, -0.389752, 0.274989, 0.382734, -0.060593, 0.408089, 0.480953, -0.327321, 0.320876, 0.221364, -0.169603, -0.050544, -0.032122, -0.303153, 0.083504, 0.438866, -0.098076, 0.437515, -0.060524, 1.235979, 1.024984, 2.747247, -0.070878, 2.277153, 0.017664, 0.692816, 1.071373, 0.711924, 0.254426, 0.090000, 0.450000, -0.120000, 0.200000, 0.200000, -0.240000, -0.370000, 0.100000, -0.260000, -0.200000, -0.080000, 0.430000, 0.130000, 0.280000, -0.410000, 0.280000, -0.160000, 0.200000, -0.320000, -0.260000, -0.313197, 0.093668, 0.458619, 0.452834, 0.311718, -0.064275, -0.288776, 0.334681, -0.473024, -0.456857, 0.709739, 0.830236, 1.713447, 0.036787, 0.601231, 0.722258, 0.092333, 0.257637, 0.838222, 1.139046, 0.464798, 0.257821, -0.016371, 0.517341, 0.159407, 0.174973, -0.265215, 0.434132, -0.167056, 0.056036, -0.415479, -0.188791, 0.480982, -0.350186, -0.316674, 0.156187, -0.029879, -0.319067, -0.174482, -0.028136, -0.185135, 0.432202, -0.441324, 0.005542, 0.519604, -0.057378, 0.521878, -0.168009, 0.315792, -0.283621, 0.268356, 0.016273, 0.274413, -0.300128, 0.378348, -0.258426, 0.294405, -0.518264, -0.470680, 0.495521, -0.100101, -0.413687, -0.178911, -0.194862, -0.352266, -0.015367, 0.674673, 0.035495, 0.191099, -0.281570, 0.569230, 0.351845, -0.448620, -0.133195, 0.545208, 0.571136, 0.218731, 0.379011, -0.068830, -0.097451, 0.390000, 0.480000, 0.220000, 0.150000, -0.300000, 0.100000, 0.390000, 0.450000, 0.100000, 0.420000, 0.524908, 0.423246, -0.506519, -0.070506, -0.376050, -0.368684, 0.282534, 0.494794, 0.049509, -0.175518, -0.437642, 0.091884, -0.357946, -0.414320, 0.228861, -0.309442, -0.432117, -0.465865, 0.434017, -0.214612, -0.240922, 0.312505, -0.256882, 0.475352, -0.014291, -0.056864, 0.212585, -0.145663, -0.087000, -0.315514, -0.155751, -0.153025, 0.328728, -0.110724, 0.293719, -0.315102, 0.708346, -0.205552, -0.318525, 0.535210, 1.300616, 2.155740, 4.035783, 0.264131, 3.409469, 0.804670, -0.256882, 1.392275, 0.802147, 0.774951, 0.059171, -0.049166, 0.071450, 0.446018, -0.054738, -0.376514, -0.482331, 0.507486, -0.152143, 0.096079, 1.326053, 1.047953, 2.072666, 0.940461, 0.917604, 0.802154, 0.754979, 0.689690, 1.785886, 1.821098, -0.230760, -0.171967, 0.010233, 0.318228, -0.453790, 0.196352, -0.476085, 0.398003, 0.419879, -0.269737, 0.278147, -0.076196, 0.181224, 0.123532, -0.277328, -0.275913, 0.114095, -0.201285, 0.497600, 0.290151, 0.287826, -0.433540, -0.150008, 0.127180, -0.288214, -0.265494, -0.323074, 0.018829, 0.078269, 0.402664, 1.056187, 2.835192, 1.933014, -0.222483, 1.439751, 1.271993, -0.114986, 0.604046, 1.884914, 1.815469, 0.407561, 0.356755, -0.039992, 0.055919, -0.396808, 0.095866, 0.149569, -0.116290, 0.376716, 0.123161, -0.420000, 0.210000, 0.220000, -0.070000, -0.090000, 0.440000, 0.210000, 0.080000, -0.030000, -0.210000, 0.029754, -0.097844, -0.356899, 0.261680, 0.355832, 0.342791, -0.371101, 0.472555, 0.014089, -0.247429, -0.441175, -0.088634, -0.333133, 0.095331, 0.545972, -0.292374, -0.357468, 0.140533, 0.127712, 0.480475, -0.155817, 0.202923, 0.180115, -0.388411, -0.344304, -0.376419, 0.563990, 0.452202, 0.188799, 0.046975, -2.273069, -1.125026, -2.406898, -0.462690, -2.677080, 0.326493, -1.375848, -1.335114, 0.368336, 0.100231, -0.251146, 0.156211, 0.460716, 0.142277, -0.339833, 0.590243, 0.080714, -0.264872, 0.106687, -0.411407, -0.211054, 0.398442, 0.257077, 0.449489, 0.423520, 0.406201, 0.667964, 0.372430, 0.218931, 0.256785, -0.220000, 0.280000, 0.320000, -0.390000, -0.470000, 0.240000, 0.270000, -0.410000, 0.190000, -0.100000, 0.165533, 0.375204, -0.446974, 0.164201, -0.311193, -0.275749, 0.383356, 0.154728, 0.007392, -0.213900, 0.170000, 0.130000, -0.440000, -0.090000, 0.010000, 0.460000, -0.240000, -0.020000, 0.320000, 0.420000, -0.372092, -0.399854, 0.199874, 0.470349, -0.289703, 0.231951, 0.241674, 0.470497, 0.310337, -0.126450, -0.119555, -0.049758, -0.259982, -0.058782, -0.447066, -0.105996, 0.255391, 0.122612, 0.481931, -0.421003, 0.324826, 0.171367, 0.170094, 0.374123, -0.394633, -0.322734, 0.382227, -0.040123, 0.155378, 0.184943, 1.569056, 0.280000, 1.857765, 1.911482, 3.080299, 0.430000, 0.170000, 1.702179, 1.311133, 1.817733, 1.883211, 1.524148, 1.588269, 1.744675, 1.088745, 0.480000, 1.595355, 2.349555, 1.549998, 1.400615, 1.505167, 1.448371, 1.115797, 1.301310, 1.325284, 0.829799, 1.608610, 1.117090, -0.080000, 2.211139, 1.972606, 2.189435, 3.153223, 0.904243, 1.558553, -0.160000, 2.404624, -0.230000, 1.774974, 2.093883, 2.072216}};

// float price_weights[2][PRICE_LAYER1] = {{-0.331527, -1.462680, -0.745876, -1.016664, -0.845549, -0.445563, -0.215404, -0.110174, -0.056237, -0.025899, -0.395795, 1.301826, -0.917475, 0.652453, -1.049279, -0.543463, -0.261531, -0.124254, -0.059255, -0.035531, -0.026273, 0.223879, -0.151332, -0.237687, -0.032468, -0.057025, 0.002014, 0.015006, 0.006975, -0.007657, 0.122631, -0.189155, 0.044457, 0.095536, 0.099103, -0.086532, 0.042659, 0.054650, 0.029149, -0.015728, 0.104680, 0.014104, 0.244346, 0.011922, 0.282009, 0.150034, 0.070675, 0.033981, 0.016671, 0.009661, -0.617790, -0.680463, 1.410592, -1.066232, -0.000599}, {-0.792138, -1.104466, 0.501581, -0.256860, -2.287993, -0.792586}};

// float demand_weights[2][DEMAND_LAYER1] = {{0.291906, 0.263898, 0.074046, 0.250228, -0.063217, -0.021294, -0.069904, 0.014782, 0.080880, 0.048293, 1.702027, 0.868691, 0.431494, 1.690897, 1.003448, 2.103003, 1.160289, 0.569618, 0.295440, 0.141588, -1.630199, -0.759736, -0.377193, -1.583055, -0.903651, 1.306516, -1.019975, -0.520602, -0.239670, -0.139123, -0.119011, -0.003781, -0.000712, 0.688285, -0.021251, -0.551602, -0.052172, -0.004450, 0.000728, -0.014088, 1.059575, 0.584615, 0.291361, 1.609035, 0.663746, -3.287695, 0.724046, 0.379781, 0.197312, 0.075039, 0.849871, 0.414400, 0.198102, -0.226463, 0.493757, 1.266057, 0.586872, 0.278639, 0.137998, 0.077449, -0.192423, 0.002644, 0.093997, -0.341784, -0.204017, 0.054015, -0.218640, 0.149917, 0.073511, 0.341286, -0.141208, -0.044285, -0.047733, -0.041142, 0.049568, 0.304119, -0.283603, -0.025540, -0.026574, -0.016842, 0.177142, -0.009206, 0.008963, 0.115267, 0.183256, -0.171746, 0.132800, 0.049470, 0.015571, 0.110591, -0.111468, -0.094956, -0.043586, 0.298327, -0.122175, 0.572255, -0.007261, -0.064540, -0.031429, 0.014476, -0.781861, -0.636664, 0.249132, -0.344155, -0.575038, -0.355170, 0.654163, 0.979171, -1.142860, 1.088503}, {0.135757, -1.520332, -0.906269, 1.320092, -1.569555, 1.016327, -0.068954, -0.554728, 0.562972, -0.988789, 1.421055}};

static fix16_t Q_weightsf[7][2][Q_LAYER1] = {
{
	{32938, 1750402, -54091, -312533, -218793, -358786, -756424, -1085859, -16926, -296987, -572839, -613315, -51525, 266730, -58424, -472121, -493545, -438317, -402347, -416224, 45632, 615078, 77990, -440328, -31089, -437531, -391591, -100278, -6241, -147285, -199978, -229251, -272983, -324745, 34241, -466531, -191338, -194672, -187394, -162903, 260822, 1098420, 460815, -740550, -91409, -552312, 262080, -561753, 159736, -98674, -778357, -812121, -199148, 139812, -93656, -215699, -460136, -402277, -349590, -353235, -144778, 624479, 364562, -520219, -333466, -353408, -190825, -84510, 6820, -381698, -87615, -221697, -300955, -556251, 66647, -215435, -495829, -441296, -386600, -438656, -38783, -51590, -110366, -123295, -84543, -34991, -30097, -83545, -12622, 462, -53284, 60439, -216371, -85370, -12102, -45817, -113861, -162002, -151748, -174755, -230514, 87110, -118881, 26134, -481783, -664479, 384207, -769566, 11978, 424, 175446, -140694, -596334, -190760, -29206, -145488, -490700, -817599, -831326, -463063, -194871, 1354317, -134217, 264133, -412967, -637478, 278809, -697833, -1362, -545631, -680502, -421989, -444892, -520235, -103420, -486183, -317562, -366800, -377571, -429279, 57481, -253309, -90387, -50226, 4717, -110158, -22858, -54814, -27647, 48164, -75578, -46283, -21728, 35400, 32374, 24802, -58047, -31979, -19527, -9873, -12514, -57482, 10813, -9691, -50912, -28850, -12244, 36, 25731, 21424, -9597, 26362, -11600, -5522, -13577, -14223, 14616, -39774, 25657, 20369, -26414, 12692, 18184, -24966, -24526, -16306, -14751, -7953, 31439, 14241, -9841, 13942, 15549, -21928, 6962, -28386, 12575, -23228, -31236, 4685, 164190, -1773525, -493851, -398362, -161369, -469630, -30355, -261920, -22819, 410149, -298363, -248242, -157187, 239500, 188601, 164637, -166956, -135457, -117634, 97069, -828890, 1380339, 317841, -721275, -242340, -511937, 173119, -1555328, 18134, -39939, -390757, -27507, -436660, -1266136, -9590, -257013, -751237, -583455, -1377672, -1409242, 15747, 1002009, -105794, -183750, -56862, -567102, -646837, -30917, 14339, -54206, -493431, -556679, -349466, -319428, 30882, -504786, -418970, -421807, -392383, -391650, 1637, 9165, -30929, -16314, -32547, -780, -31231, 1450, -5538, 12737, -14187, -2521, -14053, -4763, -13056, -30401, -3378, -30831, -28096, -26373, 156654, -458058, -148362, -70503, -47025, -122729, 42, -77196, 45650, 152172, -151278, -153207, -24133, 52983, 33962, 71829, -99030, -104794, -74061, -17715, 6702, 1574083, -101590, -208957, -907, -319281, -822352, -608055, -24051, -265497, -513754, -539892, -60852, -18540, 5063, -463278, -419623, -418090, -376437, -331419, -7313, 19782, -14786, 7574, 27434, 53089, 12916, 13361, 23602, 27761, -5892, 29023, 29565, 10962, 18294, -11966, 36087, -8041, 2399, 41996, -6476, 583639, 402621, -460328, -639197, -738049, 344818, -192916, 29823, -230219, 84041, -417277, 289363, -1581252, -1332, -529393, -574234, -594375, -699844, -509855, -519, 711, -24357, 17017, -9011, -22623, -29678, -9738, 19471, -20931, 14504, 7829, -12407, -27214, -9421, -10686, -30944, 2123, 5240, 8846, -355144, 1832735, 126778, -460224, -77714, -107429, -905363, -112076, -11611, -224918, -586145, -761881, -213039, -394793, -751945, -649260, -229812, -1261482, -457097, -742332, -925489, -637961, -647969, -650078, -170630, -697821, -1023590, -10291, -15127, 3259, 179215, -1085236, -927235, 13926, 31639, -880442, 12518, -1110179, -35775, -932227},
	{2254474, 1717257, 1527021, 290849, -165880, 1949879, 3472572, -41361, -55788, 29265, -640840, 2264623, 2359400, -15277, -164126, 1612329, 30176, 4257587, -15128, 1918026, 1506546, 794696, -3528491, 2373664, 322621, 1919306, 3392766, -31143, 19902, -17101, -113464, 2880308, -159990, -13102, -47109, 1437606, -27949, 2879088, -9719, 1363787, 2030171, 325671, 1943076, -517472, 1774539, 265477, -3539008, -147856, -4311, 16241, -945245, 3308733, 2798307, 24326, -179452, 1914669, -57531, -661501, -12395, 3889045, 797319, 957451, 1053779}
},
{
	{-495465, 1773835, 279512, -82195, -677123, -984034, 116143, -383877, -4963, -343235, -257007, 95039, -537159, -822724, -7591, -658185, -328000, -289584, -298509, -287382, -3207, -6626, -19461, 11396, -3780, -8550, -31091, -9136, 420, -6499, -11908, 22400, -25570, -13951, -8445, 11017, -10095, 23366, 6280, 5141, -191888, 65797, -11234, -230555, 28351, -1012247, -161820, -204027, 234680, 90144, 653937, -1365416, -246393, 600231, -19106, -551184, -595877, -600151, -556875, -625975, -28916, -73830, -23216, -15562, -22452, 3743, -44966, 38058, 10206, -5664, -6867, 16037, -26576, -32243, 6405, 24568, -28551, 598, -37944, -18130, 18912, -32637, -7448, -15886, -10485, -35911, -2918, -23029, 1629, -33082, -35932, 15939, 28, -47809, -8093, 4601, -32878, -13673, -48732, -3213, -318672, 513691, 58915, 16242, -153477, -496672, 472913, -742855, 1799, -21364, -359250, -89994, -55076, -393446, -9711, -173862, -242100, -241407, -266165, -231975, -1269098, 2764660, -304445, -635057, 402725, -719094, -332926, -486190, -212164, -856661, -368368, 346216, -119489, -852215, 9413, -988009, -449356, -409222, -430962, -837542, 13301, 13202, 23471, 8156, -29484, -31776, -13248, -9627, 10417, -14339, -5287, -6271, 25743, -16909, -3655, -23664, -988, -3472, 2630, -17152, -305454, -256806, -88383, -311475, -141312, -381502, 524457, -767687, 12725, -28609, -233869, -15434, -136983, -343879, 6539, -318856, -63371, -36600, -71744, -35298, 290528, -94221, -337364, 348189, 61291, -880708, -3333, -243436, 49808, -65606, 19703, -421636, -77523, -289817, 27574, 45252, -876689, -860628, -887512, -916621, -180284, 6661, 22402, -270215, 73729, -217449, 8716, -181277, 6538, -9851, -183812, -7820, 7359, -176709, 8289, -18328, -208928, -186633, -174887, -188619, -377193, 420572, 88528, 29452, -56847, -475195, -28747, -145394, -269, -13676, -414615, -1234, -47096, -465557, 21734, -267603, -164990, -147796, -147937, -120298, 35045, 15577, 35827, -410, 21420, 39511, 17534, 27703, -6265, 20936, 714, -14484, 41993, -2754, -1379, 17367, -14743, 1446, 8624, -17972, -46285, -231046, -7436, -51525, 48930, -37764, -16828, -689, 13039, 7135, -8494, 65877, -59894, -102610, 8277, 111132, -118397, -142816, -156617, -184208, 97714, -901387, 813716, -166990, -871769, -1074905, 296243, -1157473, -57640, 174370, 325952, -71651, -460289, -623933, -453, -585786, -53117, -74477, -81808, 172571, -254807, -325640, -10097, -301167, -104460, -345318, 532123, -689950, -79744, 17519, -204238, -79907, -155155, -284321, -21450, -252938, -59087, -19258, -50755, -7834, 29470, -19495, 5331, -29175, 22970, -4789, 12052, -18139, -11025, 26021, 4552, -768, 19726, -23326, -5407, 11524, -16370, -19420, 5722, 16981, -433240, 1259458, 26306, -574199, 144469, -746070, 67782, -383405, -305838, 27559, -32400, -264458, -590919, -164828, -6431, -590512, -257469, -275127, -278414, -278297, -50531, -427898, -72763, -186644, -336723, -126417, -34097, 499, -48144, 11270, -25845, -77011, -168228, 11887, 24284, 54220, -127011, -146406, -148919, -108480, 9335, -34162, -13858, -29725, 11985, -35857, -8042, -56696, 22366, 13144, -43970, 10452, -39873, -89420, 5077, 23516, -47187, -32770, -64365, -72834, -999766, -36552, -1109949, 15199, -9427, -446400, -1387699, -33161, -326711, -832422, -215921, -459349, 57415, -26491, -689000, -289255, -26448, -862214, -101489, -84792},
	{1981852, -15042, 410630, -61734, -30656, 1861814, 2823204, -27713, 1022674, 3508239, -99356, 2653291, 81777, -277834, 2771235, 931441, 17433, 1206726, -142332, -78654, 3773567, 11426, 3253910, -33213, 11145, 1654384, 3205399, -28644, 1205012, 3289254, 78265, 1373980, 6373, 76057, 1491041, 1306176, -3384, -2503230, 142490, 104092, 2570842, -11394, 3690458, -22505, 11123, -1359596, 3183547, -21015, -2082422, -1474947, 1266701, 1258372, 4945, 14220, 2747577, -1653519, 1182, 2989658, 2503282, -1584, 266438, 465670, 472034}
},
{
	{-31164, 16301, -3262, 21031, 22099, -21363, -22539, -25637, -1492, 21594, -10763, -30820, 1228, -1424, 18514, -25455, -19932, -13332, -20571, 8191, -3919, 17001, -29861, 28270, 43253, -4934, 7868, -19354, -15242, 9880, 11543, 23989, -3177, -8862, -3371, 20313, 19484, 45888, 16673, 42851, -101173, -17904, -117625, -169383, -433022, -394557, -245973, -116432, -93697, -52497, -67809, -51685, -215047, -365015, -20682, -319626, -57832, -34792, -78898, -34529, 25799, 1635110, 139272, -451222, -349499, -929697, -64795, -710945, 98377, -29782, -245330, -218488, -773162, -936967, -9013, -507124, -593032, -574222, -559710, -881965, -82150, 155846, 49985, -355197, -110148, -443423, -113971, -154529, -1338, 9512, -28954, -274095, -366120, -113544, -28514, -241681, -143681, -160998, -148763, -172060, -393974, 2040125, -157351, -463716, -283579, -833309, -654057, -619568, -346489, -90339, -593295, -669618, -402982, -734664, 2751, -372030, -574024, -568983, -557656, -555062, -622758, 1934334, 79158, -78573, -532960, -916502, -871025, -415761, -15906, -46575, -802663, -460724, -45897, -832183, 15359, -717882, -193266, -204213, -195349, -225594, -245759, 1277421, -388710, -330544, -275752, -291436, 294330, -924336, -280609, -20823, -51135, -437659, -579416, -356200, 9287, -307237, -435220, -465988, -444815, -454622, -30862, 41474, 24289, 22988, -17896, -9741, 8144, 21021, 34515, -1443, -3354, 24667, 24912, 36657, 20820, 33695, -1364, -57, 50464, 5469, -431834, 1646893, -326871, -408211, 14927, -646056, -344412, -650198, -505082, -49494, -376802, -525805, -526360, -516019, 17924, -424934, -491918, -488267, -485425, -477951, -29083, -32005, -759, -30259, -19930, -2421, 1764, -14460, -14172, -14046, 31055, -1118, 11639, -16339, 4639, 15203, -668, 5319, 18868, -32988, 9288, 4994, -2674, -14709, -11315, 6325, 11207, -30027, -13572, 20102, -21294, 9141, -10021, -25703, -7523, -20660, -18086, -11460, -5527, 4509, -227377, -688390, -61925, -40041, -601349, -150656, -370686, -49942, 24187, 156011, -188585, 42391, -7114, -302115, -11667, -220708, -38963, -15597, 4607, -8940, -250955, 1082426, -449228, -217109, -317269, -129303, 218498, -808680, -264103, -64469, -143330, -275176, -485095, -365405, -15421, -248207, -342115, -342637, -399041, -372956, -295695, 1414699, -395915, -210615, -311941, -257643, 180488, -897059, -352594, -42965, -72902, -419562, -424255, -363794, -30252, -283208, -442625, -426030, -413998, -421778, -415915, 1581266, 430905, -407643, -1029022, -1242924, -927719, -762900, -244710, -219226, -778287, -263611, -49165, -1231495, 11055, -103663, -979561, -959635, -989753, -923982, -90821, 2148639, 107911, -360642, 104088, -1338796, -240420, -1622614, -460585, -565630, -1116287, -1025779, -283359, -843998, -31630, -373026, -954369, -924580, -954846, -1219560, -65398, 81830, -53859, -266987, -321359, -185421, -142726, -269101, -7960, -36902, -205929, -152307, -72715, -234047, 5025, -7799, -258822, -277420, -289656, -287251, -20700, -3987, -3789, 7036, -19816, -8266, -24045, 242, 12359, 18921, -1087, 11791, 1342, 14137, 13287, 8777, 20822, -12664, 6037, -21505, -368266, 1662786, 127782, -506041, -381023, -874287, 10419, -1151765, -205048, -37618, -632536, -441500, -231743, -609065, -28192, -385201, -471184, -446819, -465740, -425913, -10904, -7844, -416349, -1046650, -356886, -982982, -908555, -741406, 55740, -890402, -8848, -31427, -195302, -628731, -663444, -1076291, -1281165, -280110, -28080, -855374},
	{-2903, 23200, 1288613, 2368922, -1388876, -438845, -23181, -341838, 193, -726883, -1977, -15146, 370421, -457965, -214810, 5035083, 3933413, -1275217, 1507, -625168, -14303, 38337, 336043, 2247972, 382868, -109471, 127897, 1553529, 48383, 1527695, -17761, -25347, 344829, 1236998, 1525680, 2259415, 1967014, 127039, -27775, 1312375, 7102, 44938, -650313, 3128813, -809770, 1324475, 1699777, 2150393, 55985, 974693, 19654, 21646, -2828292, 1890383, 2238833, 3268164, 2672610, -464612, 1494, 1873576, 490309, 344324, 316917}
},
{
	{-804380, 1256206, -355671, -468030, -534933, -400820, -298169, -2313273, -30474, -221869, 212899, -142194, -122042, -556516, -1603, -854687, 40580, -244311, 153848, -290241, -1138, -25318, -18278, -3185, -22400, -24726, -12601, -19328, 6041, 8151, -22682, 4331, -20990, 10517, 16964, -32076, 4085, -443, 9533, -2051, -210938, -332128, -626606, -324061, 797534, -574226, 574177, -667373, 15359, -625010, 65351, -49219, -1048653, -327096, 8023, -775014, 53628, -530397, 160913, -310970, 34748, -607823, -456162, -85882, -45902, -326199, -287296, -523262, -8125, -44644, 43327, -290244, -39654, -255433, -26974, -367648, -154306, 109814, -458828, -167839, -204605, 544524, -770872, -776150, -567481, -1229409, 76747, -1490450, 14325, -79128, -155748, -607175, 467941, -404043, 8405, -1316836, -3271, -326002, 75060, -233854, -92457, 135348, -899925, -380556, 698801, -499946, 273802, -504739, -29698, -649894, 42442, -304329, -807830, -71507, 4441, -829486, 131278, -451618, 148228, -556087, -287218, 215700, -248499, 511386, 371746, -451162, -220067, -194454, -20214, 97344, -29481, 125846, -583730, -1021091, -31628, -538461, -187442, -197365, -206852, -174130, -207717, 1085398, 20144, 294918, -702770, -1206256, 582431, -822051, -28560, 58706, -356973, -105748, -802531, -512056, -1033, -363312, -607614, -470600, -564548, -529860, -679659, 231161, -541491, -142696, -356497, -749242, -660891, -350692, -21606, 21777, -42137, -94384, -285267, 56724, 21088, -689737, 36987, -1718, 1229, 73094, -7658, 425510, -191934, 88517, -171834, -649685, 126695, -203928, 489, 79164, -70486, -408443, -136656, -336427, 11387, -466043, -202063, -174423, -182351, -155053, 6420, -19942, 26071, -13913, -20730, -23815, -10334, -28326, 16678, 28519, 11921, -30052, -15391, 25146, -28256, -22163, -24642, -3079, 207, 12566, -437612, 374645, -164536, -447245, -94012, -52376, -209205, -1062527, -22436, -268291, 153418, 54851, 127853, -242000, -11705, -497901, 93059, -201123, 230460, -262662, 15337, -17070, 32950, 34427, 53045, 8942, 18140, -7375, -31406, -4053, 12057, 87181, -25425, 6140, 25910, 38604, 28893, 12129, 23942, 31863, -14407, 629, -25880, -18146, -6349, -7225, -20922, -591, -19354, 24405, 28228, -28618, 19282, -29280, -7385, -21018, -30892, 30100, 20729, -28038, -59471, 458343, -116741, 72230, 458101, -683068, 369454, -570993, 2807, -245452, -110381, -365801, -595904, -412066, -14087, -783799, -18660, -190638, -254581, -131611, -121727, 1247859, -22385, 206327, 89591, -1130627, -1200295, -1566700, 5199, 131140, -400271, -313536, -647697, 22589, 10317, -539566, -894448, -941597, -855349, -866492, -687399, 2167567, -341324, -138414, 81633, -1315804, -1507588, -528520, 2313, 6872, -26924, -374436, -101414, -239780, -4429, -1005911, -191057, -178668, -199539, -215334, -288142, 399591, -199305, 251085, 40302, -367378, -373232, 104438, 26882, 92714, -63872, -5248, -213882, -637372, -5293, -485292, -33556, 2969, -10598, 9813, 10093, -155832, -196741, -168186, 39915, 68749, -91949, 38324, 8109, -189288, -5569, 20412, -181019, 80979, 15123, -11963, -47119, -219160, -63620, -261299, -19541, -11297, -22390, -27649, -1035, -23329, 28343, 8589, -25840, 38148, 11403, 20214, 22308, -4048, 17216, 10077, -21259, -17606, 19369, -5581, -885431, -14627, -701518, -509074, -1378502, -753413, -757827, -978029, -714618, -677533, -12718, -396538, 88423, -19772, -832941, -1400119, -1242854, -535917, -99164, -36071},
	{3347357, -15773, 1871494, 2302067, -452460, 703493, 671932, 2470328, -2501087, 549914, 6501, 256845, 104195, 28828, -569843, 4988243, 2989963, 695499, 6129, -5241, 1802046, 32132, 1651995, 97769, 2277814, 1692114, 1555095, 1896726, 1104965, 934120, -24471, 1845794, 60452, 11132, 1079439, 3156571, 2352460, 2107989, 5821, 17125, 3032864, 20434, -1800021, 813462, 3407017, 2256325, 3367242, 4024725, 2110742, 1546612, -8462, -677706, 46629, -20664, 2272107, 3816666, 3587817, 60734, 27964, 2710, 241030, 447083, 511767}
},
{
	{-698713, 554260, -72015, -179730, -241724, -654516, -455800, -540765, 6714, -16671, 19694, -262611, -493055, -504469, -13901, -227576, -526148, -487253, -487393, -449373, -506821, 1326137, 584469, -59797, 505091, -1093249, -6737, -534209, -18623, 23106, -512737, -422065, -715825, -1080667, 7501, -557015, -303659, -329424, -309597, -382336, -410826, -480470, 313863, -505757, -375438, -803019, -67099, -250204, 9997, 33186, 30273, -624517, -652135, -318112, -23032, -817339, 244367, 215406, 225030, 231316, -410, -28681, 14875, 21249, -23905, -1245, -29948, 18644, -16129, -24470, 3896, -33989, -14720, -27084, 8663, -18925, 11860, -16612, -24858, -23497, -25046, -134556, -35988, 2165, -47279, -30788, -20025, -73362, 8988, 11737, 20993, -67726, -22022, 24961, -31516, 3224, -36568, -7070, -8296, -18898, -13581, -16060, 4458, -22749, -23421, -36035, 5387, 3032, -9148, 4748, -19283, 9721, 29286, -2424, 15433, 13805, -3267, 546, -1339, -25519, -1382097, 1208864, -99006, -332235, -350226, -687913, -737449, -653723, 19628, 33806, -1269870, -377207, -516140, 77757, 10019, -560769, -752515, -705005, -710128, -753684, 7519, -79960, -28706, 8273, -45720, -47610, -3391, -82293, 31740, 26474, 17906, 2304, -43996, 24792, 28238, -17605, -35094, 11515, -43056, 11120, -8001, 787258, -257454, -39139, -481587, -439896, 140611, 24336, 26801, -13259, 123258, -1023572, -957555, -677778, -7553, -468794, -349586, -317988, -337190, -349076, -629207, 1547185, 111946, -421331, -380045, -806706, -774668, 576823, -25436, 5056, -79923, -539621, -519666, -387697, 2295, -540072, -432132, -390521, -380347, -492927, -833817, 1073979, 377495, -869854, -144593, -663937, -124819, -328628, -29922, 21877, -63902, -779596, -494677, -413816, 32418, -252034, -458846, -493884, -431711, -627753, -623322, 1065314, -9051, -647470, -542732, -854442, -155722, -462910, 26292, 16464, -233814, 99238, -270225, -910518, -9791, 54458, -939705, -940088, -904627, -880545, 6458, -48804, 3291, -15361, -23531, -30512, 14448, -4860, 19005, -31057, -14004, -9405, -7601, 14455, -19946, -28504, -26239, -2023, 21268, -21738, -710268, 2146978, -711279, 554177, -320713, -1019204, -806510, 479420, 3291, -394371, -589259, -1103453, -345185, -583218, -2163, -789777, -732177, -776107, -724686, -400200, -333477, 946049, 38205, -399079, -572681, -619085, -341209, 24208, -23785, 504, -21849, -550369, -351380, -182370, 16219, -214156, -525680, -528402, -551709, -586998, -689928, 2715894, -104098, -286787, -317571, -791232, -250486, -577081, -99971, -78760, -660180, -1071136, -294844, -388337, 12203, -1268281, -208494, -197322, -203368, -753875, -30921, -267382, 2671, -37807, -37977, -53406, -90612, -91620, -31560, 24135, 37058, -70703, -27513, 31502, -20024, -5287, -27798, -8308, -24995, -31629, 27809, 2034, 7109, -12880, 27518, -19215, -20999, 25352, 34863, -28210, 9452, -8117, 36562, 3732, 4809, 15644, -21952, -14297, 37911, 5092, -310049, 474523, 31829, -303010, -22953, -266180, -255096, 134070, -3799, 30720, -46879, -261145, -285313, -6006, -17750, -40653, -250105, -265837, -250104, -276632, -353434, 225677, 35458, -346474, -53908, -369255, -359446, 44145, -14059, 19165, -21925, -330131, -360543, -16082, -24058, -29301, -315147, -337536, -297117, -344223, -767919, -915239, -613435, 5170, -67596, -18386, -1299997, -46013, -793103, -919738, -718299, -834951, 2114, -1581725, -775665, -1451805, -64401, 2811, -311259, -351239},
	{857481, 2779663, -4932872, -21980, -24703, -29817, 3781728, -20690, 3347680, 1108800, 1203681, 3051245, 30554, 3537526, 731018, 669988, 4784, -25243, 262229, 8530, -3521286, 2377475, 1646049, -141, -21600, -20467, 1829028, -40979, 1750276, -303810, 2398657, 1373307, -20367, 1428986, -4233446, 1036254, -101220, -10577, 1050608, 827117, 1919941, 905637, 2104954, 4535, -76736, 9073, 2945686, -58213, -2520994, -5013953, 4132443, 3159105, -14894, 2801065, 2586139, 4561311, -130440, 39815, 3312120, 2292649, 632538, 627444, 595822}
},
{
	{-383933, -86527, 12419, -79066, -122701, -299122, 134393, -398126, -6344, -24544, -338102, -234238, -22531, -85959, 22592, -124044, -160737, -196619, -147730, -160893, -151027, -233229, -77471, 23827, -284756, -367357, -125787, 19350, 28807, -23923, -318567, -713318, 309233, 155679, 23338, -375117, -179719, -174533, -183285, -128090, -275180, -248897, 26460, 13217, -277315, -414465, -55954, -50195, -20522, -76093, -243089, -663904, 226923, 167953, 2947, -330920, -152541, -180507, -188648, -183112, -699748, 560537, 91913, 114139, -776612, -506482, 6724, -37257, 22955, -13861, -669448, -316817, -174378, -314676, -21838, -523522, -26732, -39298, -8305, 27742, -28838, -26751, -21747, -11562, -9911, 18976, -22738, 4542, -17046, -28678, 13221, -12572, 15240, -6317, -3753, 15907, -16683, -3121, 13305, 3234, 49418, 621721, -304763, 863792, -1621854, -2024873, -886466, -621722, -334572, -558232, -599377, -346170, -624381, -249434, -28608, -528675, -874543, -843797, -887592, -1518423, -308066, -187724, 10343, 6097, -182560, -222931, 247694, -397795, -16565, -16102, -305555, -166331, -40052, -82347, 11219, -228323, -20371, -43996, -5086, -30195, 5360, -10563, -15743, -11042, -19864, -16027, 18962, 5600, -31398, 17875, 1529, -16213, -9489, -2727, 14821, 3531, 14180, -14224, -30429, 4949, -197670, -70790, 26191, -61739, -72499, -259361, -166252, 75125, 11844, -1816, -171096, -480369, 248418, 225922, -21962, -143281, -124434, -129082, -152523, -150688, -203360, -145810, -30451, 323207, -221765, -352947, -52467, 40707, 23410, 13340, -309761, -417794, 56790, -79707, -16047, -339127, -88253, -89384, -109520, -109045, -122969, 5336, -6607, -121214, -42634, -266329, -125640, -3183, 34482, 18139, -140998, -455718, 213392, 234859, 3565, -61890, -169860, -188359, -176996, -167931, -316751, -222106, -11468, 105782, -218776, -248696, 307716, -440527, 30668, -27663, -335910, -141150, -75993, -119431, -7967, -203191, -31127, -54995, -78945, -24957, -631443, -3161261, -643813, -69423, -649090, -184737, -695512, -855382, 15678, 57715, -456012, -68736, -504537, 421956, 12165, -145337, -74117, -107171, -64906, 122301, -334406, -1067933, 106177, -537972, -1211163, -398743, -62322, -938079, -6480, -12571, 4879, -456711, 98309, 123948, 18590, -526750, -71938, -36314, -84047, -87605, -347986, -132065, 777, -58777, -147498, -278691, 182159, -384132, -21067, 32947, -351181, -235979, -43320, -72866, 17340, -186933, -151011, -121772, -110291, -111615, -9080, -25058, -13659, -20759, 14521, -3441, -14320, 17990, 1834, 7694, -13912, -5492, 21025, -25965, -27856, -26725, 14793, -27155, -22957, -36029, -245090, -286665, -32442, 15693, -269613, -266253, -15255, -5051, -21303, -31315, -262087, -312093, 43339, 38429, -24466, -37522, -238942, -260653, -239285, -271393, -8288, 10036, -26974, -20128, -4764, -11730, 1963, 7998, 6375, -18324, -13948, -23500, -10887, -17392, -9485, -16452, -26306, -91, -11245, 14552, -1685713, -1710265, -306817, 821589, -1227378, -914584, 676019, -1721801, 9664, 2111, -241306, 38607, -998039, -746444, 8617, -95938, -625687, -619529, -614142, -617846, 16051, -29265, -29014, 41282, -7779, 12991, 24348, 7406, -32432, 2649, 31631, -22055, 34051, -22538, -4385, 4829, -32097, -19137, -2378, -20384, -330424, -522463, -462200, -555467, -24878, -1367369, -243640, -18599, -321920, -457149, -216364, -284299, -244078, -561696, -303336, -13847, -303076, 14858, -731143, -23049},
	{-549167, 1344184, 1023228, 2134796, -2696, 5458983, -182037, 4618, 841016, -712952, 692778, -203664, 2154347, 1431259, -417207, 14908, 75967, 29217, 2771478, 37681, 1050838, 1559964, 1270541, -212080, 1309, 2200757, 1203230, -27757, 1045525, 1753429, 832308, 1182522, 4431297, 2831621, 1116348, 10782, 117169, 20330, 3687519, -13096, 1241943, -1853425, -2421525, 3028461, -12621, 2514558, 1364494, -23916, -2768884, -2319004, -2736765, 1422554, 3801539, 1183806, 1294768, -23179, 777023, -17284, 3184880, 30746, 422358, 414014, 424064}
},
{
	{52969, 126347, 217207, -267898, -177077, -668074, -711541, 395646, 7783, -27223, -333, -40101, -29032, -337262, 25300, -657392, 79011, 41466, 46720, 87571, 8678, 99114, 192082, -284592, -193482, -672050, -726127, 435466, -24150, -12227, 37035, -13699, -20864, -359584, 8933, -662606, 80918, 45804, 90189, 105979, 10139, 623616, -218270, -27959, -1444777, -1791902, -582770, 46773, -14597, -14653, 15338, 31702, 278062, -576346, -8919, -1364835, 44419, 78136, 84147, 87668, -240785, 766874, 390410, -27621, -134181, -1044393, -332296, 450616, 12179, -19643, -174291, 86522, 4119, -508016, 22154, -538950, -336945, -295019, -287893, -346516, -3645, -35, 3407, -10150, 19173, -6902, 20760, -30582, 31888, 20773, -8985, 12329, -26240, 1744, -13329, -18006, -31083, -6620, 15452, -4574, -484764, 1595997, 207692, -45398, -212875, -1143350, -684927, -67660, -30246, -8085, 82534, -75813, 410114, -382477, 28908, -756782, -369273, -395948, -363445, -324743, -1149577, 1921633, -257401, -41703, -783525, -990572, -344490, 94779, -15473, -266866, -663040, -361566, 5100, -368751, 25820, -718103, -453093, -485403, -486126, -485653, -16760, -26663, 26660, 13434, -23561, -4023, -127, 27851, -545, -29594, 18905, 29798, -34251, -29436, 18070, 15041, -10693, -26213, -51056, -8733, 33627, 101535, 48231, 57341, -425046, -462356, -395815, 82211, -18552, 14313, 3783, -30742, -13178, -452541, 3725, -378395, -48104, -37547, -5493, -3455, -190753, 765272, -481779, -199331, -924063, -1048449, -386434, -30341, 11945, 8087, 34324, -10798, -4647, -683551, 22398, -562140, -220719, -207495, -228914, -201723, -44873, -675877, -252784, 414495, -775825, -671864, -109445, 555745, 12343, -303908, -160027, -328044, -425158, -302428, -17014, -424989, -247967, -232044, -247971, -253877, -75829, 391335, 152024, 126658, -575405, -720560, -414118, 545336, 2529, 18158, 13387, -22572, -38077, -300858, 31740, -481046, -110488, -105407, -81371, -98853, -20356, 25939, -21562, 36262, -291595, -316470, -338141, 53013, -31110, 21861, 17958, -27717, -2480, -355139, -3769, -203886, -134996, -149726, -152817, -147671, 28785, 87048, 132923, -4762, -515366, -551010, -567776, 202154, 23776, -18779, 23116, -32958, -32115, -366294, 12757, -296750, -183237, -187963, -191006, -193728, 21932, 26324, -22555, 30565, -1005, 47914, -7166, 37177, -1697, -13440, 14504, 20732, 61141, 42363, 20758, 40747, 41031, 24938, 4798, 21953, 2638, -6965, -13463, -22817, -12264, 8832, -31196, 32662, 2465, -23261, -12525, 5645, 21696, 4390, -30412, -29913, -22792, -410, 8785, 11956, -647596, 392184, 224882, -6388, -1708507, -1429809, -341655, -1621267, -19694, -612324, -545215, -587655, 723348, -133686, -5833, -1158072, -364883, -322897, -336597, -366386, -381044, 257407, 54867, -975339, 184401, -808780, -522082, 310843, -9271, -27699, -20900, 14397, 89943, 144967, -20052, -817322, 51255, 60318, 89310, 68746, 77406, -28902, 3679, 18961, -253098, -229452, -48309, 296331, 28144, -144915, -15292, 30298, -206411, -214837, 2003, -86962, -159488, -143623, -113044, -158157, 31801, 245377, 86858, 148385, -229638, -328699, -259715, 139796, -601, 4366, 31137, -26117, -39083, -351641, 10043, -251033, -51048, -51785, -33172, -81492, -579621, -572084, -1300636, -837080, -25809, -1098813, -1190714, -20916, -455423, -764801, -642503, -587865, -306112, -500945, 48114, -27465, -1547655, -751693, -240296, -312780},
	{1923460, 1966424, 2139450, 826701, -20820, -2519205, 1915678, -27774, 1044855, 968750, 1048044, 124430, 1638349, 1462992, 105697, 29675, 3233056, 1776253, 390018, 1150316, 846468, 862993, 2749692, 1654100, 17286, 376061, 2598733, 13202, 112353, 1679812, -5048326, 446155, 61181, 376823, 39537, -1806, 2752475, 2081340, -1929664, 289094, 1154788, 1152955, 3029961, 4108794, 14197, 449032, 4397578, 650, 227226, 3237769, 2571087, 1409505, 288792, 647447, 22360, 12389, 3815786, 3117041, 1075820, 484518, 243504, 560749, 644637}
}
};
// static fix16_t price_weightsf[2][PRICE_LAYER1] = {{-21727, -95858, -48882, -66628, -55414, -29200, -14117, -7220, -3686, -1697, -25939, 85316, -60128, 42759, -68766, -35616, -17140, -8143, -3883, -2329, -1722, 14672, -9918, -15577, -2128, -3737, 132, 983, 457, -502, 8037, -12396, 2914, 6261, 6495, -5671, 2796, 3582, 1910, -1031, 6860, 924, 16013, 781, 18482, 9833, 4632, 2227, 1093, 633, -40487, -44595, 92445, -69877, -39}, {-51914, -72382, 32872, -16834, -149946, -51943}}; 

// static fix16_t demand_weightsf[2][DEMAND_LAYER1] = {{19130, 17295, 4853, 16399, -4143, -1396, -4581, 969, 5301, 3165, 111544, 56931, 28278, 110815, 65762, 137822, 76041, 37330, 19362, 9279, -106837, -49790, -24720, -103747, -59222, 85624, -66845, -34118, -15707, -9118, -7800, -248, -47, 45107, -1393, -36150, -3419, -292, 48, -923, 69440, 38313, 19095, 105450, 43499, -215462, 47451, 24889, 12931, 4918, 55697, 27158, 12983, -14841, 32359, 82972, 38461, 18261, 9044, 5076, -12611, 173, 6160, -22399, -13370, 3540, -14329, 9825, 4818, 22367, -9254, -2902, -3128, -2696, 3248, 19931, -18586, -1674, -1742, -1104, 11609, -603, 587, 7554, 12010, -11256, 8703, 3242, 1020, 7248, -7305, -6223, -2856, 19551, -8007, 37503, -476, -4230, -2060, 949, -51240, -41724, 16327, -22555, -37686, -23276, 42871, 64171, -74898, 71336}, {8897, -99636, -59393, 86514, -102862, 66606, -4519, -36355, 36895, -64801, 93130}};


#endif